[[2.3743393421173096, 2.6385319232940674, 2.3580071926116943, 0.08603217452764511, -1.1884669065475464, -0.6715887188911438, 1.7352838516235352, 2.598532199859619, 2.2342331409454346, 1.5541129112243652, 1.8181072473526, -0.0034369744826108217, 2.204665422439575, -0.6415556073188782, 0.08002685010433197, -0.7964978218078613, 1.4116928577423096, -0.1965148150920868, 1.7018458843231201, -0.8193441033363342, -1.5772643089294434, 2.0369131565093994, -2.6648147106170654, 0.417244553565979, -1.2731882333755493, 1.8097971677780151, 2.523470878601074, 0.6825723052024841, -0.21098116040229797, 0.7114677429199219, 3.341938018798828, -0.9655120968818665, 0.9840711951255798, 1.983971118927002, -0.7194455862045288, -2.1762678623199463, -2.151723623275757, 0.7977975606918335, 0.5367892384529114, 4.649661540985107, -0.766998291015625, 0.06424995511770248, 4.174736499786377, -0.5510565638542175, 3.2814438343048096, 0.6576941013336182, 3.7895781993865967, -0.051864273846149445, 3.745814323425293, -0.40576663613319397, 2.830852508544922, 2.348752498626709, 0.3261008858680725, 1.5615767240524292, 1.5007569789886475, -1.8483322858810425, 2.472489595413208, 0.1279355138540268, 2.796091079711914, -0.25659212470054626, 2.018873453140259, -0.8311417102813721, 3.539562225341797, -0.14712883532047272, 0.7666265368461609, 5.922929763793945, 1.7361435890197754, -0.0159131046384573, 0.9626342058181763, 1.9438610076904297, 0.2091648280620575, -1.5547254085540771, 0.9297769069671631, -0.027075497433543205, 3.085172176361084, -0.24291297793388367, 1.755043625831604, 2.503300666809082, -1.5345696210861206, 2.032991647720337, 3.2925169467926025, -0.3692072629928589, -0.1930876225233078, 0.9785063862800598, -3.2060601711273193, 0.15169571340084076, 1.0863295793533325, -0.5485882759094238, 1.6066335439682007, 0.9136200547218323, 0.5010262131690979, -1.009590744972229, 0.5830179452896118, 0.498892605304718, -0.13209348917007446, -0.12156708538532257, 1.4067707061767578, 2.880668878555298, 4.161120891571045, 4.6147966384887695, -0.6559528708457947, 2.2901368141174316, 0.23048491775989532, 2.1400156021118164, 1.4170708656311035, 0.0470554381608963, -0.6437753438949585, -1.1139518022537231, -1.555008053779602, -4.633266925811768, -0.9839913249015808, -0.07837680727243423, -4.124762058258057, 2.315382719039917, 0.9106555581092834, -0.3149559199810028, 2.777458667755127, 0.0800493136048317, 0.7885653972625732, -0.153663769364357, 0.6745650768280029, -0.3348996639251709, -0.5842556953430176, 2.258115768432617, -2.0303432941436768, 2.1184632778167725, -1.0281774997711182, 2.187307119369507, 3.9583935737609863, 0.5576669573783875, 3.242065668106079, 1.388772964477539, 0.436827689409256, -1.9453058242797852, 0.47128814458847046, 2.2812936305999756, -2.508150339126587, 0.9423245191574097, 4.988363265991211, 0.5425156354904175, 0.5132105946540833, -1.3403260707855225, -0.04098553955554962, -1.870504379272461, 1.2762731313705444, 0.6743359565734863, 1.882310390472412, 0.8456718325614929, 1.1643372774124146, 3.461883783340454, 1.5398123264312744, 2.4844906330108643, -0.7308988571166992, 2.603384256362915, 2.3631722927093506, 2.2085888385772705, 2.252384662628174, 1.1831251382827759, 0.06598780304193497, -1.4713102579116821, 3.21917986869812, -0.6248732209205627, -1.1955775022506714, -1.8509960174560547, 2.318129062652588, 1.7268238067626953, -0.2983231842517853, 0.8579100370407104, -1.0088828802108765, -0.5495505332946777, 1.9879873991012573, -0.32577574253082275, 0.4894440472126007, 1.4040509462356567, -0.01136847771704197, 4.036400318145752, 3.2212119102478027, 1.447221040725708, 3.3298184871673584, 0.3932141661643982, 0.6035193800926208, 0.1517782360315323, 1.467952013015747, 1.746996521949768, 1.511128306388855, 0.6458807587623596, -0.4333348870277405, -2.1090219020843506, 0.011131679639220238, -0.33589041233062744, -1.114892840385437, -0.7819785475730896, -0.029076069593429565, 1.0289818048477173, 2.0191314220428467, 5.276914119720459, 0.49203354120254517, 3.899526596069336, -1.1451705694198608, -0.13941559195518494, 0.3755406439304352, 1.850332498550415, 2.8903520107269287, -0.876279890537262, -0.35217219591140747, -0.13517233729362488, -0.48820483684539795, -3.9191176891326904, 5.101999759674072, 3.117474317550659, -1.241447925567627, 3.833538293838501, -0.28403905034065247, 1.4400266408920288, 1.5194388628005981, 0.7180258631706238, -1.346228003501892, 1.9405156373977661, 0.8605734705924988, 2.740137815475464, 0.532812774181366, 2.6897106170654297, 8.467612266540527, 1.9480619430541992, 0.7095483541488647, 1.0695616006851196, 3.4767537117004395, 3.987685441970825, -1.0478520393371582, 4.2493486404418945, 0.6636657118797302, 0.6746814250946045, 1.8094459772109985, -0.8617362976074219, 2.7920429706573486, -2.2538046836853027, -3.123685121536255, -0.3931451439857483, -1.0334676504135132, -1.9073187112808228, 0.7246459126472473, 3.151282787322998, 2.437582492828369, 1.03983473777771, 0.04132382571697235, 1.2921526432037354, -1.733681082725525, -1.288167953491211, -1.377375602722168, 1.035366415977478, 0.8290948271751404, -0.40264615416526794, 1.754135012626648, -2.941737413406372, -1.5749704837799072, 0.8457577228546143, 4.718343734741211, -0.6899388432502747, 0.5154039859771729, -1.9106769561767578, -0.3537299931049347, 0.5826377272605896, -0.7635565996170044, 0.5895529985427856, -0.23337513208389282, -0.5173844695091248, -0.42314663529396057, -0.8741160035133362, 1.2938443422317505, -0.7542439699172974, -0.08346834778785706, 0.015899136662483215, 2.27104115486145, 1.8461339473724365, 0.24969865381717682, -0.328734815120697, -1.338353157043457, 1.1485503911972046, 0.726348876953125, 1.4447952508926392, 1.2903921604156494, 0.906851589679718, -3.6806235313415527, 1.8650243282318115, 0.24835148453712463, 0.9884058237075806, -1.257616400718689, 2.152869939804077, 0.8409156799316406, 0.7106442451477051, 0.16703514754772186, -1.61776602268219, 0.07964444905519485, 1.4417452812194824, 0.9205605983734131, 1.7093170881271362, -0.7264275550842285, 2.2732834815979004, 2.205338716506958, 0.07604240626096725, 3.2677650451660156, -0.043112851679325104, 1.3248571157455444, -1.1268326044082642, 2.4183154106140137, 1.1895877122879028, 0.013914230279624462, 0.4967025816440582, -0.58918696641922, -1.507760763168335, -0.45915454626083374, -2.0128984451293945, -1.9164538383483887, 1.604889154434204, -1.0491728782653809, 0.07481574267148972, 0.4512510597705841, 0.8178833723068237, 1.2593140602111816, -0.3423365354537964, -2.2003655433654785, -3.4654860496520996, 1.209420919418335, -2.67022442817688, 0.523462176322937, 1.5796184539794922, 2.1989476680755615, -1.157988429069519, -0.45979321002960205, -0.08817534148693085, -2.422677755355835, 0.2790784239768982, -1.088053584098816, 2.562093496322632, 2.466754198074341, -1.176658034324646, 0.5529546737670898, -0.24305959045886993, -1.1071598529815674, -1.9433802366256714, 3.4660825729370117, -0.9390261173248291, 0.43323373794555664, 0.37914952635765076, 0.39446166157722473, -0.9046520590782166, 0.818103551864624, -0.4982926845550537, -0.15334971249103546, -1.18583083152771, -1.043751835823059, 1.0372873544692993, -2.9424142837524414, 0.06115330383181572, -0.3178451359272003, -0.6325733661651611, -1.6645115613937378, 0.6013717651367188, -1.2317837476730347, -3.361783266067505, 0.19351492822170258, -1.6910241842269897, -1.7838716506958008, -0.8615721464157104, 0.6650790572166443, 0.9905633330345154, -1.5223287343978882, 0.39325082302093506, -2.8228795528411865, 0.19010673463344574, -0.6319975256919861, -0.6361148953437805, -0.3006162643432617, -0.34350836277008057, 2.4440934658050537, -0.009189202450215816, 0.9049769639968872, -1.6937475204467773, 0.4256589412689209, -2.5277552604675293, -0.7253994941711426, -2.0326271057128906, 1.9658254384994507, -1.073257565498352, 1.5742326974868774, 1.7100239992141724, 2.003117322921753, 1.5247924327850342, 2.1901278495788574, 1.9802513122558594, 1.8045285940170288, 0.8211276531219482, 1.0774201154708862, 0.9615413546562195, 1.2403677701950073, 1.0789462327957153, 1.822497844696045, -0.7389529347419739, 1.0958011150360107, -1.4827948808670044, -0.2684335708618164, -1.8553186655044556, -0.15801091492176056, 0.9126384258270264, 0.940701425075531, 5.114902496337891, 3.1831917762756348, -0.9130305051803589, 3.094931125640869, 4.494655132293701, -0.00652393139898777, 6.072879791259766, -0.6418662071228027, 1.821516513824463, 1.9811984300613403, -1.6624534130096436, -1.0066720247268677, 3.4916248321533203, 0.23658058047294617, -0.9087502956390381, 1.935842752456665, -1.2642523050308228, -0.3735445737838745, -0.0864604115486145, -1.2847872972488403, 1.9854522943496704, 1.2727664709091187, 1.110679030418396, 4.548312664031982, -0.47105497121810913, 2.98396635055542, 1.878014326095581, 1.7391221523284912, 0.3450052738189697, 4.703717231750488, 0.0661277174949646, -0.38227903842926025, 0.8650243282318115, 0.3853917419910431, -0.31225478649139404, 0.7962942123413086, 3.660513162612915, 3.1271135807037354, -0.7942999601364136, 4.049347877502441, 0.6819881200790405, 8.72376823425293, -0.6788285374641418, 0.5990620255470276, 9.863245964050293, 1.860951542854309, -1.0635297298431396, -0.4602896571159363, 0.5797241926193237, 0.884496808052063, 0.5123063921928406, -1.4080123901367188, -0.4406229257583618, 3.5218288898468018, 0.16917972266674042, -0.6671093106269836, 1.453006625175476, -1.0550615787506104, 2.091390371322632, 1.4473111629486084, -0.51470547914505, -0.519177258014679, -0.8482130169868469, 0.5160326957702637, 0.39077892899513245, 0.21899576485157013, 0.1825343668460846, 1.6092338562011719, -0.6915462017059326, -0.3655286133289337, 0.8963698744773865, 1.5477855205535889, 5.796081066131592, 0.05499345809221268, -1.1939866542816162, -0.14729832112789154, 1.8822184801101685, 1.002867341041565, 2.546407699584961, 1.8110498189926147, 1.0975213050842285, 0.13317206501960754, 2.081825017929077, 3.11033296585083, 1.12325918674469, 0.698440432548523, 0.2173764854669571, 0.4190037250518799, -0.5697117447853088, 0.5264453887939453, 0.2756175696849823, -2.0880978107452393, 0.05219307169318199, -0.9978927373886108, -0.4572753310203552, 1.3554543256759644, 1.028192162513733, 1.340590476989746, -0.06346445530653, 0.5032675266265869, -0.6573718786239624, -0.7925761938095093, 4.386238098144531, 0.6118425726890564, 2.6114187240600586, 0.19939535856246948, -0.4063199758529663], [2.093141555786133, 2.7258455753326416, 4.125821590423584, -0.027988728135824203, 3.5527844429016113, 2.45080304145813, 0.02082889899611473, 1.5921400785446167, 1.6399394273757935, 0.3987469971179962, -0.07342202216386795, 1.480237603187561, 3.849539041519165, 0.46571338176727295, -0.20533248782157898, 0.9424186944961548, -3.0124778747558594, -1.6658313274383545, -0.6562585830688477, 0.6947727203369141, -0.4947795271873474, 1.0874065160751343, 0.49853670597076416, 1.2864882946014404, -0.5572729706764221, 3.6282103061676025, 1.476239800453186, 1.5433602333068848, -0.45269641280174255, -0.2797295153141022, -2.5018699169158936, -0.7488117218017578, -3.192553758621216, 5.520298957824707, 1.2785604000091553, 1.0530869960784912, -2.042508363723755, 2.8619227409362793, -1.3096339702606201, 0.18725238740444183, -0.13991260528564453, 1.811806321144104, -1.4463433027267456, -0.3957374691963196, -0.006487511098384857, -0.5418029427528381, 2.0882129669189453, -0.889991283416748, 2.174165725708008, -1.8946385383605957, 1.347687005996704, 2.260195732116699, -0.6966519355773926, 3.9170520305633545, -1.459118366241455, 1.4182018041610718, 1.803452730178833, -0.09512756019830704, 4.01039457321167, -0.6380326747894287, 1.4407671689987183, -0.2629111111164093, 6.8791279792785645, -3.757207155227661, -1.5368807315826416, 3.240513801574707, 1.9217921495437622, -1.1582714319229126, 0.6370478272438049, -0.19278794527053833, -0.45239222049713135, -0.6410706639289856, 0.9216107726097107, 0.021776381880044937, 5.226868152618408, 1.1853017807006836, -2.3027989864349365, 1.8180221319198608, -3.337975025177002, 2.351421594619751, 1.6037185192108154, -0.17843037843704224, 0.687868595123291, 1.5021185874938965, 0.14613617956638336, -0.20357383787631989, -0.7468383312225342, 1.6587198972702026, 1.503969430923462, 0.8289610147476196, 0.21662497520446777, 1.5585143566131592, -0.38092803955078125, 1.8390463590621948, -0.8046224117279053, 0.8489671945571899, 1.1661514043807983, 1.2359565496444702, 0.8103834986686707, 1.1511191129684448, 2.777256727218628, 4.602735996246338, -0.23233984410762787, 2.4815914630889893, -0.40871575474739075, 1.6153546571731567, 1.6230772733688354, -0.019584443420171738, -0.8633753061294556, 1.3689534664154053, -2.559072494506836, 1.5188844203948975, -2.841468572616577, 0.2678890824317932, 0.8329520225524902, 0.07392005622386932, -0.5513107776641846, 3.212455987930298, 2.619130849838257, 0.38721615076065063, -0.2678918242454529, -1.749353051185608, -1.8738431930541992, 1.2448254823684692, 0.3851718008518219, -0.7787716388702393, -0.41548043489456177, -1.2058477401733398, 1.779948115348816, 2.7180943489074707, 3.68471360206604, 2.7554495334625244, 0.9139389395713806, 1.51435387134552, 3.71183443069458, 4.149827003479004, -0.18898159265518188, 3.1526620388031006, 0.6643730401992798, 1.6435850858688354, 2.4425885677337646, 0.858296811580658, 1.8528385162353516, -0.7218188643455505, 1.1112686395645142, -2.197265148162842, 2.083407163619995, -0.5831907391548157, 1.824935793876648, 1.0821278095245361, 2.300750732421875, 3.305448532104492, 1.0425716638565063, 2.6384942531585693, 1.5655689239501953, 5.057767391204834, 3.3196308612823486, 3.060976982116699, 0.8573373556137085, 0.6417827010154724, 0.18666991591453552, 1.6071163415908813, -0.3057478666305542, 3.1585261821746826, 2.469273567199707, 2.4636781215667725, 0.20919685065746307, -1.477006435394287, -1.634911060333252, 3.971794366836548, 0.6353727579116821, 2.3932290077209473, 3.892714262008667, -0.39342617988586426, 1.7792224884033203, -2.2675702571868896, 1.0230634212493896, 1.071876883506775, 3.156863212585449, 2.9276442527770996, -1.2198708057403564, 0.5532009601593018, 1.270538330078125, -1.4462558031082153, 3.3760433197021484, 3.054889678955078, 2.825122356414795, 0.5412119626998901, 1.5924756526947021, 4.716493129730225, 1.0793906450271606, 0.2168489545583725, -0.11587662249803543, -1.1301811933517456, -0.3696317672729492, 3.2848479747772217, -1.3125154972076416, 2.7727341651916504, 0.2612837255001068, 1.152774453163147, 3.273719072341919, -1.3449134826660156, 0.5107665657997131, -1.0549490451812744, 3.7150821685791016, 0.36886128783226013, 0.15391398966312408, 0.33229556679725647, 1.038100242614746, 0.9905478954315186, -2.7387664318084717, 2.8207812309265137, 3.3324813842773438, 1.2140142917633057, 1.646867036819458, -2.693166494369507, -1.5862895250320435, 1.5840797424316406, -1.711657166481018, 3.0159080028533936, 1.9340211153030396, 5.893104076385498, 2.1870124340057373, 2.874615430831909, 1.5168976783752441, 4.301801681518555, 0.42052868008613586, -0.0784425213932991, 1.0915642976760864, 4.600480556488037, 0.08554434031248093, -0.682136058807373, 1.9370348453521729, -0.5134047269821167, -0.3450302481651306, 2.009809732437134, -1.3965790271759033, 0.7960562705993652, 0.21490754187107086, 2.8648102283477783, -0.17128108441829681, 2.516648769378662, 5.044454097747803, -0.6182671785354614, -1.6160213947296143, -1.6952345371246338, 0.8259193897247314, 0.05236253887414932, 1.264574646949768, 2.81815767288208, -1.169284701347351, 3.2586491107940674, 0.16334663331508636, 0.6295573115348816, 1.7650067806243896, -2.1079635620117188, 1.226065993309021, -1.3557019233703613, -1.4615601301193237, -3.6253559589385986, -1.1443181037902832, 0.5785306096076965, -0.0944753959774971, 0.1938016563653946, -0.244834303855896, 1.163739562034607, -0.5234801173210144, 1.1834839582443237, 0.3512510359287262, 1.6809732913970947, -0.12174808233976364, 1.3509008884429932, 0.10093691200017929, -1.3900043964385986, -0.47790953516960144, 1.6894179582595825, -1.0822162628173828, -1.4712578058242798, 1.8058956861495972, 0.9452529549598694, -0.03546686843037605, 3.6535685062408447, -1.913781762123108, -0.39494556188583374, 0.48141106963157654, -1.326357126235962, 0.6307258605957031, 1.127754807472229, -0.5239709615707397, -4.299386024475098, -0.33352112770080566, 0.43714627623558044, 0.0018192391144111753, -1.9374326467514038, 0.7544978857040405, 0.5242864489555359, 0.1413225531578064, 2.3846654891967773, -0.7209746241569519, 0.7011874914169312, -0.1900794357061386, -1.7248289585113525, 0.9623173475265503, 0.10095240920782089, 1.8508708477020264, -0.12383171170949936, -0.6870638728141785, -1.3094944953918457, 0.2663491666316986, -1.5566599369049072, 0.4482439458370209, -0.08257298171520233, 2.7048966884613037, 0.5629334449768066, -0.9246389865875244, -0.36860978603363037, 0.4645085036754608, 1.3344902992248535, -1.0735936164855957, 0.9271896481513977, -1.0205153226852417, 0.5572288036346436, 0.905745804309845, -0.7139679789543152, -1.6525499820709229, 0.34178221225738525, 0.10081909596920013, 1.5464820861816406, -0.1229180172085762, -0.1454026848077774, -0.31114670634269714, 2.0218799114227295, 1.066231608390808, 0.43596023321151733, 0.33380475640296936, -1.4558686017990112, -0.2995632588863373, -0.06471718847751617, -0.11163599044084549, -0.19351164996623993, 0.8717453479766846, -2.6537179946899414, -2.847834587097168, -1.2170099020004272, -1.0994783639907837, 0.36322903633117676, 1.208336591720581, -1.09632408618927, 0.7486512064933777, -0.11352583765983582, -0.7711600661277771, -0.8294588327407837, -1.3473398685455322, -1.2734586000442505, 1.4339805841445923, -0.4913082718849182, -0.5810505151748657, 1.196703314781189, 1.8670371770858765, -2.667691230773926, 0.07058863341808319, -2.4424753189086914, -0.4902758002281189, -0.9275758862495422, 1.5844863653182983, 0.405400812625885, -0.1642472743988037, -0.26535773277282715, -0.27744051814079285, -0.4314548373222351, 0.6733703017234802, 0.833456814289093, -0.14476154744625092, -0.8229520320892334, -0.32362550497055054, 0.15572278201580048, 0.822143018245697, -2.7015857696533203, -0.48375606536865234, -1.6887378692626953, 0.5320191979408264, -1.5789496898651123, 2.1825320720672607, 1.1098769903182983, 2.3482134342193604, 2.2266008853912354, 4.368992328643799, -2.2364089488983154, 5.6082305908203125, 0.6834616661071777, 0.9116583466529846, 1.004369854927063, 1.6235076189041138, 1.1115938425064087, -0.09994827210903168, 0.023507216945290565, 2.4601263999938965, 2.2944695949554443, 1.8920351266860962, -2.584118127822876, -2.071816921234131, 2.8302714824676514, 0.7837283611297607, -0.6061100363731384, -2.0247466564178467, 4.308406829833984, 3.1055471897125244, -0.5478320717811584, -0.289219468832016, 6.141206741333008, 0.05333786457777023, 2.7279610633850098, -0.9215816259384155, 2.3653669357299805, -0.9242225885391235, 2.987356185913086, -2.6363213062286377, 3.9850656986236572, 0.204971581697464, 0.05685291811823845, 0.4098263382911682, 0.7456446886062622, -0.1582459658384323, 1.3765363693237305, -0.31895169615745544, 4.098397254943848, 1.2154197692871094, 0.2675434947013855, -0.013854114338755608, -0.426986426115036, 5.180765151977539, 0.5560886859893799, 2.531395673751831, -0.1818365603685379, 1.3217644691467285, 4.08740758895874, 0.5045378804206848, 2.945896863937378, 0.9364456534385681, 1.3235944509506226, -0.32496747374534607, 1.1809953451156616, -0.022700389847159386, -0.40231722593307495, 1.0801808834075928, 0.24187147617340088, 2.227609157562256, -1.0823274850845337, -0.23195531964302063, 0.5553017258644104, 2.383327007293701, 0.07509800046682358, 0.6429710388183594, -0.6547016501426697, -0.5872787833213806, 0.46671751141548157, -0.0788421481847763, 0.18814687430858612, 3.157029867172241, -0.3620634973049164, -1.3044930696487427, -0.4456444978713989, -2.5968518257141113, 1.4097864627838135, 2.129286289215088, 1.7153462171554565, 0.003332480089738965, -0.32550686597824097, 1.1511212587356567, 0.9175338745117188, 2.218810558319092, -0.13374797999858856, 5.084201812744141, 1.2045191526412964, 0.37626224756240845, -0.8175901174545288, -3.3895835876464844, 3.5980224609375, 2.4206857681274414, -0.16260328888893127, 1.2941001653671265, -0.6817303895950317, -0.1877678632736206, 0.19495238363742828, 3.0731029510498047, 5.108888149261475, 0.6908938884735107, 2.6056149005889893, 0.4585573375225067, 0.9518717527389526, 1.842146635055542, -1.5093895196914673, -0.772007942199707, -0.2967577576637268, 0.43788987398147583, 0.6833728551864624, -0.9724359512329102, -1.9499317407608032, 0.9351116418838501, 0.13133662939071655, 2.6337506771087646, 1.4395651817321777, 2.152987003326416, -0.2194920778274536, -0.0621483288705349, 1.0370068550109863, -1.4304115772247314, 3.166745662689209, -1.7371084690093994, 2.3142707347869873, -0.690761387348175, 0.4873688220977783], [-0.7875636219978333, 1.9653170108795166, 2.487685441970825, 4.988988399505615, 1.5325520038604736, 0.37121567130088806, 1.5348620414733887, 3.6591877937316895, 1.6814240217208862, -1.0108567476272583, 0.9614254236221313, 2.1234354972839355, -0.8476977348327637, 2.0242133140563965, -0.3167305290699005, -1.631825566291809, -0.3656534254550934, 3.2068872451782227, -0.8324478268623352, 4.708412170410156, 4.096302509307861, -1.1829484701156616, 0.9760088920593262, 0.27074486017227173, 1.9765883684158325, 0.10072344541549683, -2.902508020401001, 0.8932615518569946, -1.134313702583313, 3.2760391235351562, -1.4487024545669556, 0.7252731919288635, -0.1842251420021057, 3.178555488586426, -1.2558335065841675, 1.7473053932189941, 1.4184108972549438, -2.3081862926483154, 3.8613970279693604, -0.7635912895202637, -0.2998625338077545, 1.7006747722625732, -3.164546012878418, 0.43650615215301514, -3.066786289215088, 0.5834582448005676, 2.84749436378479, 0.15993326902389526, 2.016040086746216, 2.8447725772857666, -0.9483007192611694, 1.0115305185317993, -0.745508074760437, 1.9912587404251099, -0.5051980018615723, -0.5255441069602966, 0.5376510620117188, 2.7079389095306396, -0.8528385758399963, -0.4056698679924011, -0.9035565257072449, -0.39029040932655334, 0.9581211805343628, -1.2170888185501099, 0.2329576313495636, 1.860164999961853, -0.31704339385032654, 0.9526790976524353, 1.506066083908081, 1.14701247215271, 1.2989593744277954, 1.179312825202942, 2.886037826538086, 0.8360060453414917, 0.37575969099998474, -0.5404360294342041, -0.5101484656333923, -2.992321491241455, -1.0984303951263428, -1.3830556869506836, 2.824507713317871, -1.5296287536621094, 0.4278090000152588, 8.242426872253418, -0.10608930885791779, 1.5600619316101074, 3.4296810626983643, 0.38243368268013, -1.4236162900924683, -2.0200324058532715, -1.63192880153656, 2.7859883308410645, 1.6551932096481323, 2.356656551361084, 0.7813282012939453, 0.818583607673645, -1.2146880626678467, 0.3188195824623108, -1.1123987436294556, -0.3645385503768921, -0.1593409925699234, 0.7189093232154846, 0.5467213988304138, 0.7141014337539673, -0.9937306642532349, 2.2384302616119385, 0.2856004238128662, -0.21334587037563324, 1.4583150148391724, 2.4948034286499023, 5.202990531921387, -4.999881744384766, -0.6949782371520996, -0.5372328758239746, 1.2688637971878052, -1.1767065525054932, -0.8864840865135193, 3.4745430946350098, 0.07584771513938904, -0.3726094365119934, -0.1784532368183136, 0.8390961289405823, 2.0591623783111572, 2.0913844108581543, -0.0349038802087307, -2.108668565750122, -1.7351603507995605, 8.135254859924316, -1.0629916191101074, 0.5374744534492493, 2.3668296337127686, 2.7519378662109375, 0.7513534426689148, -0.0013022497296333313, -1.168692708015442, -0.3055333197116852, 1.4865885972976685, -1.745116114616394, 1.8298405408859253, 2.1221892833709717, 1.868553876876831, 1.4928107261657715, 4.704981803894043, 2.849189281463623, -3.241832971572876, -0.46884897351264954, -1.3910808563232422, -1.9788641929626465, 7.862358570098877, -4.335721492767334, 3.863051414489746, 1.6741145849227905, -0.00876440666615963, 1.4078924655914307, -3.1620895862579346, 2.941676139831543, 0.45603474974632263, 3.628848075866699, -1.5239884853363037, -1.3144091367721558, 3.5095112323760986, 1.5499248504638672, 1.2372428178787231, -0.07636882364749908, 3.340775728225708, 2.121084213256836, 0.6486032009124756, 1.61533784866333, -2.4965224266052246, 1.341206669807434, -0.899670422077179, -1.1103986501693726, 2.6430726051330566, -2.3841168880462646, 2.230886697769165, 0.25564777851104736, -0.8771786689758301, 1.9687250852584839, 0.4406295716762543, 2.1604692935943604, -0.7461278438568115, 1.712646484375, 2.4710280895233154, 4.472256183624268, 5.835616588592529, 1.5654560327529907, 2.5736746788024902, -1.7883960008621216, 0.026088044047355652, 0.008132915012538433, 0.6921443343162537, 0.3053671419620514, -0.08833397179841995, 0.8325952291488647, -1.1706979274749756, -1.5161432027816772, 2.0965735912323, 3.3119256496429443, 0.4090714156627655, 0.7135160565376282, 0.5854904651641846, -0.17418982088565826, -1.0213487148284912, 1.8063055276870728, -0.9697943925857544, 3.8921425342559814, 3.759500503540039, -1.7298959493637085, 4.512300491333008, -0.4538702070713043, 0.03325226530432701, 2.143885374069214, 1.9853887557983398, 0.9441219568252563, 2.310765266418457, -4.507648468017578, 0.6916211247444153, 1.9121463298797607, -2.974092721939087, 6.8371429443359375, 0.8414007425308228, -0.8750379681587219, 1.809368371963501, -0.817112386226654, 0.166141077876091, -0.929131031036377, 0.6555716395378113, 2.2291176319122314, -1.8638108968734741, 1.4665623903274536, 0.35127347707748413, 0.8108910918235779, -0.6063380241394043, 1.2345017194747925, 3.771195888519287, -2.2043187618255615, -1.5110447406768799, 0.7489975094795227, -0.02560015581548214, -0.7774946093559265, 0.9972479939460754, 1.4551010131835938, -2.951723337173462, 2.4413771629333496, 1.4153258800506592, -0.4811799228191376, 1.7108122110366821, 2.397221803665161, 0.5339462757110596, -3.2699179649353027, -0.6485767960548401, 1.318990707397461, -3.198486566543579, -0.9329875707626343, -0.8673216700553894, 7.836443901062012, -1.047019600868225, 1.2221542596817017, 0.9228407144546509, -1.428537130355835, -2.623673915863037, 0.5296058654785156, -0.853782057762146, 3.023714065551758, 0.9202954769134521, -3.212501287460327, 3.566657781600952, 0.44111356139183044, -0.9762582182884216, -0.4333230257034302, 1.6803579330444336, 0.3845546245574951, 2.891550302505493, 0.41422784328460693, 0.2629551589488983, -0.8834444284439087, 3.1368601322174072, 2.8685340881347656, 0.356661319732666, -0.8140501379966736, -0.8198481798171997, 0.2565077841281891, 2.6245651245117188, 0.6839006543159485, 0.7172476053237915, 1.8958686590194702, -2.610851526260376, 0.3842432200908661, -1.9205073118209839, 1.1022623777389526, 0.5208577513694763, 1.7444602251052856, -1.1713227033615112, -1.9075385332107544, 4.338192462921143, -1.4364397525787354, -0.8736190795898438, 0.23096798360347748, -1.0775376558303833, -1.4384524822235107, -5.075385570526123, 4.423985958099365, 1.9078336954116821, -0.7262243628501892, 0.13150723278522491, -0.8467616438865662, -1.213890552520752, 1.1770628690719604, 3.1897566318511963, -1.6644985675811768, -1.73151695728302, 1.3439632654190063, -0.18553981184959412, 1.9968316555023193, -0.7794806361198425, -0.48619937896728516, 0.2870796024799347, 1.028980016708374, -0.8931720852851868, -1.4096719026565552, 1.9062607288360596, -2.11151123046875, -0.12248009443283081, 1.7190532684326172, 0.09169188886880875, 2.542046308517456, 0.3669704794883728, -0.4999625086784363, 1.3088089227676392, -0.5093558430671692, -0.4413653612136841, -2.0262818336486816, -0.007301466539502144, 0.6640502214431763, 1.9266040325164795, 2.2433152198791504, 1.343113899230957, -1.455913782119751, -1.2674974203109741, -4.141096591949463, 2.19442081451416, 0.4742133617401123, 2.617765426635742, -0.46939805150032043, -1.562733769416809, 3.837801933288574, 1.2825658321380615, -0.8817604184150696, -0.4767876863479614, -0.4785102605819702, 4.994655609130859, -1.6836955547332764, 2.1995961666107178, -0.5377439260482788, -2.9350688457489014, -1.469573974609375, -1.7150694131851196, 0.08689754456281662, -0.673436164855957, 0.6677940487861633, 0.9278841614723206, 0.7820667624473572, -2.7044484615325928, 0.11199420690536499, -1.7278611660003662, 0.44508281350135803, -1.952173113822937, -4.166709899902344, -2.6473331451416016, 0.15368486940860748, -1.2223740816116333, 1.6379656791687012, 0.8778381943702698, -1.0804070234298706, 0.014315779320895672, -0.1326787918806076, 0.033126067370176315, -2.046833038330078, -0.5664023756980896, 0.3664175570011139, 0.4986197054386139, 1.0262421369552612, -0.5164914727210999, -5.033907890319824, 0.39396747946739197, 0.3538789749145508, 2.9172186851501465, 4.288679599761963, 3.10078763961792, 1.5128421783447266, 4.778990745544434, 5.428611755371094, 0.30063873529434204, 0.27887678146362305, -0.9062868356704712, 3.6504533290863037, 3.0825412273406982, -0.3762871026992798, -0.6987258791923523, 0.37885791063308716, 0.1551969200372696, 0.08656760305166245, 1.7991795539855957, 1.971317172050476, 2.8882734775543213, -0.3232627511024475, 2.0936853885650635, -0.31246039271354675, 4.621138572692871, -1.9575601816177368, -0.6666120290756226, -1.9913747310638428, -0.07199428230524063, 4.44575834274292, 1.6610273122787476, -0.19084177911281586, -1.2329516410827637, -0.4726864695549011, 0.5854010581970215, -0.051415279507637024, -0.43873634934425354, 3.0160136222839355, -0.02460525929927826, -0.41916534304618835, 0.8410946130752563, 1.9476823806762695, -3.5657436847686768, -0.7101148366928101, 0.026577560231089592, -2.5959033966064453, -0.4348372519016266, -2.4854815006256104, 2.5406975746154785, 3.6683027744293213, 6.506115436553955, -1.987281322479248, -1.875388741493225, 0.48046600818634033, 1.6150217056274414, -2.011542797088623, 2.0423409938812256, 0.5167926549911499, -1.054046392440796, -0.44734448194503784, 0.6681643724441528, -0.0006286675343289971, 4.997372150421143, 1.1784095764160156, -0.4885459244251251, 1.717740774154663, 2.995269775390625, 2.4133121967315674, 0.0885699987411499, 1.7427963018417358, 0.3253929615020752, 0.7355287075042725, 1.2513000965118408, -0.17520761489868164, 0.1131598949432373, 0.30047574639320374, -0.9732527732849121, -1.0392006635665894, 0.8763286471366882, 0.23673154413700104, 2.202193260192871, 1.2793062925338745, -0.6497287154197693, 0.4952232539653778, 0.18161801993846893, -1.516614556312561, -1.283271074295044, 2.7840163707733154, -0.39072656631469727, -2.938612461090088, 0.9839847087860107, 10.111222267150879, 2.1054587364196777, 3.228924512863159, -1.8076072931289673, 0.18963134288787842, 1.3870124816894531, 2.095062017440796, -1.6527316570281982, 0.2231787145137787, 2.3257229328155518, 0.6342372894287109, 1.3433306217193604, 3.2169928550720215, -0.9713606238365173, -0.7980170845985413, -0.89602130651474, 0.05256117880344391, -0.3931445777416229, 1.0859090089797974, 0.6385300755500793, 1.279341697692871, -1.6593972444534302, 2.642287492752075, 1.460663080215454, 0.3866238594055176, -0.17213837802410126, 1.5482113361358643, 0.899823784828186, -1.9460046291351318, -0.37803447246551514, 0.6919305920600891, 2.443466901779175, -0.6545987129211426, -0.3603370487689972, 0.7378079295158386, 0.6188117861747742, 2.490325450897217], [4.711163520812988, 4.258720397949219, -2.569187879562378, 2.1310293674468994, 0.44466590881347656, 1.2473615407943726, 3.76751971244812, -1.9988871812820435, 0.7419867515563965, -1.221937894821167, -0.22476229071617126, 7.11818790435791, 0.27437806129455566, 2.51025390625, -1.290963053703308, -0.1150229200720787, -0.5924475193023682, -3.644843101501465, 2.239655017852783, 2.3940188884735107, -4.656594276428223, -1.6301965713500977, 3.9128034114837646, 3.811075210571289, -2.141611099243164, -1.9523078203201294, -4.722036838531494, 0.37735846638679504, -2.7337419986724854, -3.5168278217315674, -0.08288467675447464, -1.5497349500656128, -3.7778966426849365, 0.5282641649246216, 3.0307583808898926, 4.473560333251953, -0.5569484829902649, 6.519084453582764, -1.3424406051635742, 9.280341148376465, 2.5978446006774902, 1.3227643966674805, 7.354393482208252, 5.938406944274902, 0.5666388869285583, -3.2855122089385986, -5.232543468475342, 1.0308821201324463, 6.595937252044678, 1.2294050455093384, 4.168276309967041, -0.7762157917022705, -1.5040555000305176, 1.8373284339904785, -2.6735634803771973, -1.0447373390197754, -1.0885951519012451, -0.9110808968544006, 0.6448758244514465, -2.729482650756836, -1.9213780164718628, 3.4833920001983643, 0.31506580114364624, 1.282292366027832, 0.46135255694389343, 0.4285922050476074, 17.386646270751953, -4.711594581604004, 4.621687412261963, -2.1994783878326416, 2.626063108444214, 0.7917202115058899, 2.3976058959960938, -2.844665288925171, -1.8914986848831177, -1.1097629070281982, -1.4259837865829468, -0.6960938572883606, 2.151867151260376, 2.7870287895202637, -2.086634635925293, 4.564130783081055, -0.12200275808572769, -3.7120935916900635, -0.0763634592294693, -1.4474138021469116, 3.5007731914520264, -0.6476056575775146, 1.1722540855407715, -1.5033694505691528, 6.064120769500732, -0.1015385091304779, -3.6029372215270996, 2.098217248916626, 1.3772302865982056, 0.19308511912822723, 3.3558099269866943, -1.82899808883667, -3.0055503845214844, 2.3182361125946045, -0.9291143417358398, -0.6805136799812317, -0.18423019349575043, 0.6147028803825378, 3.9488680362701416, -0.34670084714889526, 0.07395713776350021, 1.6519396305084229, -2.6819677352905273, -1.27211332321167, -4.150186061859131, -4.73520565032959, -0.8100667595863342, -4.742434024810791, 0.035569481551647186, -1.7950552701950073, 2.1463358402252197, -1.0977044105529785, 8.590974807739258, -0.5635907053947449, -2.55684494972229, -2.3222086429595947, 0.11133059859275818, -0.2313954085111618, 0.9558705687522888, 0.5659562945365906, -2.0508854389190674, -3.9732515811920166, -1.1888384819030762, 4.062082767486572, 0.014451769180595875, -3.9892349243164062, 9.785297393798828, -0.7936625480651855, 4.539259433746338, 2.6938636302948, 5.199089527130127, 1.7421650886535645, -0.5889480710029602, 0.7771017551422119, -1.984437346458435, 0.41508209705352783, 4.6448798179626465, 2.929025173187256, 1.4481863975524902, 0.02600979618728161, -3.1791744232177734, 1.1439824104309082, -0.5972495675086975, -2.83562970161438, 1.6158677339553833, 7.198519706726074, 0.821850597858429, -5.999438762664795, -2.211177349090576, 2.3994529247283936, 2.6063649654388428, 0.0664064958691597, 3.2276787757873535, -0.378676176071167, -3.404294729232788, -0.4447461664676666, 2.224787712097168, 2.9863078594207764, 1.9211034774780273, 1.6798152923583984, 1.2686560153961182, 2.5614817142486572, 2.645949363708496, -0.6916362047195435, 4.456857681274414, 0.5236552357673645, 2.427394151687622, -2.3734726905822754, -1.1075901985168457, -0.4304606318473816, 1.8805054426193237, 0.4323391914367676, -0.6847119331359863, -0.9360607266426086, 0.9214702248573303, 0.3039635419845581, 0.762183427810669, 3.189257860183716, 3.451277494430542, -2.918309450149536, -2.194347858428955, 0.935251772403717, 0.9614703059196472, 1.0788441896438599, 3.2554547786712646, -1.5670173168182373, 2.042433500289917, -0.2853446900844574, 6.798008441925049, 1.8794983625411987, 1.063264012336731, 2.8473384380340576, 7.5727410316467285, -0.5144057869911194, 1.4049875736236572, -4.134257793426514, 1.587082862854004, -0.2318270355463028, 2.4285645484924316, 0.08252885937690735, 1.7740446329116821, 2.785665273666382, 0.01469762809574604, -5.714137077331543, 2.8171370029449463, 1.1704442501068115, -1.098421573638916, -2.4705159664154053, 1.996113657951355, -8.257352828979492, 1.3424005508422852, 0.9710918664932251, 12.425073623657227, 1.785768747329712, -0.6867327690124512, 3.2536306381225586, 2.71362042427063, -2.580622673034668, 5.775852203369141, -0.7228116989135742, -1.8087191581726074, -1.7215214967727661, 0.01372337993234396, -0.30706948041915894, 1.662919044494629, 4.345409870147705, 0.5293681025505066, 5.590435028076172, 0.4676709473133087, 3.710418701171875, 3.092512607574463, -0.3574354350566864, 0.7616919875144958, -1.9508718252182007, 0.7841033339500427, 0.25921866297721863, 0.7186156511306763, -1.2203928232192993, -2.5132176876068115, 1.422345757484436, -5.632377624511719, -0.32130318880081177, -2.1755053997039795, -0.9500229954719543, 1.3471895456314087, -1.6691147089004517, 1.8555485010147095, 0.43944868445396423, -0.007375458721071482, -1.8472141027450562, 1.0673644542694092, -6.447401523590088, -1.5243711471557617, -0.293940007686615, 1.3033175468444824, 0.36287516355514526, -5.5478835105896, -0.8772454857826233, -1.9501787424087524, 0.4336656630039215, -1.8621200323104858, 1.6705944538116455, 2.539971351623535, 4.995729446411133, 1.362243890762329, -0.23945081233978271, -5.840708255767822, 2.9884183406829834, 2.97845458984375, 0.567474901676178, -5.76705265045166, -4.331264972686768, 3.1287972927093506, 2.956864356994629, -4.225953578948975, -2.8199574947357178, 6.776679992675781, -0.7634137272834778, -5.69119119644165, -0.29150858521461487, 0.06748323887586594, -2.0071749687194824, -6.911611557006836, -1.6034406423568726, -1.299729585647583, 1.0925101041793823, 6.0667643547058105, -5.547608375549316, 2.5114805698394775, 1.1582036018371582, -1.158155083656311, 1.1450759172439575, -4.9172210693359375, -1.807599425315857, -0.21418964862823486, 3.515303373336792, -1.0631921291351318, -1.4424643516540527, 0.716301679611206, -0.09591345489025116, -0.8444001078605652, 0.8646315932273865, -0.6797517538070679, -0.3855767548084259, -1.955996036529541, 0.8781507015228271, -0.6209508776664734, 2.409855842590332, 2.1573309898376465, 3.9743926525115967, -0.29689356684684753, -1.2047816514968872, -0.7837976813316345, -7.818540573120117, -0.8251737356185913, 3.1829538345336914, 7.758852958679199, 5.376917362213135, 3.6886565685272217, -2.1053812503814697, 5.6779022216796875, 3.718900442123413, -1.1575970649719238, 7.5468034744262695, 1.3879870176315308, 0.8292072415351868, -4.937942981719971, 2.685528039932251, 5.663499355316162, -3.398508071899414, -1.9390522241592407, -6.39063024520874, 0.6427359580993652, 3.3386545181274414, 0.4881150722503662, -2.6141626834869385, 0.6079055070877075, -4.109999179840088, 0.10150464624166489, -4.007096290588379, 5.821432590484619, -0.19574986398220062, 2.563751459121704, -5.626428127288818, 7.8406782150268555, 2.788717269897461, 5.046748638153076, 2.4344112873077393, -1.234256625175476, -1.3806061744689941, 2.793020248413086, -0.4279699921607971, -0.6214874386787415, 4.382112503051758, 1.0702685117721558, -2.348423480987549, 1.9926259517669678, -0.36569783091545105, 4.930860996246338, 0.8226816654205322, -1.759077787399292, -1.2524311542510986, -0.5393614768981934, -0.8812628388404846, 1.3500304222106934, 0.5444731712341309, -2.816774845123291, -2.378490924835205, 5.856691837310791, -6.5552592277526855, 3.388533353805542, -4.159911155700684, 1.256380558013916, -1.0179764032363892, 6.0463480949401855, -0.04793524369597435, 0.6718310117721558, 1.5901603698730469, 2.178945541381836, 2.356475830078125, -2.7609543800354004, 2.3510913848876953, -2.689739942550659, 0.5498675107955933, 3.763139247894287, 0.41860929131507874, -2.4087958335876465, -2.1557154655456543, 0.8349130153656006, 1.7829176187515259, -1.3017418384552002, -0.011668950319290161, -1.8671109676361084, -2.2431938648223877, -1.7760850191116333, 1.7530437707901, 2.816917896270752, 1.2890641689300537, -5.082111835479736, 0.8463172912597656, 4.912431240081787, 2.2619211673736572, -0.06409981101751328, -0.5862317681312561, 0.9938951730728149, 0.4072587788105011, 2.6101279258728027, -1.252198338508606, -0.9841557145118713, -2.1086320877075195, -4.570859909057617, -2.4036009311676025, 3.931232213973999, 4.6751556396484375, -3.330350399017334, 0.9125562310218811, -1.2982087135314941, 1.8661681413650513, 0.8013589978218079, 0.804719865322113, 7.0420823097229, 1.3585801124572754, -0.835218608379364, -1.121439814567566, 1.1684163808822632, -1.1284223794937134, 2.677835702896118, 1.0615724325180054, 0.23492181301116943, 2.2469656467437744, -1.1567909717559814, 1.615740418434143, -0.345630019903183, -1.2167309522628784, -1.0188982486724854, -1.0994905233383179, 1.8594908714294434, -3.1082236766815186, -1.3670765161514282, -1.5952152013778687, 4.023437976837158, -0.7194240093231201, 0.580068826675415, -1.225907802581787, 7.087287425994873, 1.9190635681152344, 4.750654220581055, -1.5494199991226196, 2.3346991539001465, -1.662428617477417, -0.09703264385461807, -0.7313612699508667, -2.594186305999756, -2.7738394737243652, -1.1660088300704956, -0.8285416960716248, -3.0955007076263428, 0.5776721239089966, -2.1485435962677, 8.521499633789062, -2.5114033222198486, -2.539851427078247, -0.44900304079055786, -3.178375244140625, 0.719287633895874, 0.45860719680786133, 0.018313279375433922, -0.9148095846176147, 1.7649567127227783, -5.518703937530518, 1.6889020204544067, 3.247169256210327, 3.464573383331299, -2.5910470485687256, 0.8799024224281311, -1.9070321321487427, -4.852666854858398, -0.8599829077720642, 0.9656731486320496, -2.9752588272094727, 0.765882670879364, 0.3955584764480591, -0.08302822709083557, 5.354723930358887, 0.5166541934013367, -0.9554516673088074, 1.6321866512298584, -0.4477185606956482, -5.3615641593933105, 0.43997877836227417, -1.405059814453125, -3.3657240867614746, 3.3637654781341553, -1.0460989475250244, 2.111518621444702, -4.556405544281006, 6.891634941101074, -1.950793743133545, 0.8069348335266113, -1.6557732820510864, 0.04707019403576851, -3.2770986557006836, 0.9648229479789734, 0.6782084107398987, 0.32612690329551697, -2.4540796279907227], [-6.032937049865723, 3.7984206676483154, 6.3018951416015625, 10.033080101013184, 2.8701486587524414, 2.2715160846710205, 8.426560401916504, 6.2358078956604, 1.755617618560791, 2.12996768951416, -0.07490590214729309, 13.360878944396973, -3.486388683319092, 0.399253785610199, 0.9653741121292114, 0.8390843272209167, -0.42575451731681824, -5.423397064208984, -0.5222021341323853, -0.8132144212722778, 1.2526438236236572, 1.9860122203826904, 5.963428020477295, -1.9765682220458984, 1.032923936843872, 0.3380252420902252, 0.49747705459594727, 3.2415592670440674, 0.24248209595680237, 11.645801544189453, 2.754505157470703, 3.036579132080078, -1.17939031124115, 15.570569038391113, -0.5727476477622986, 5.951665878295898, -4.92672872543335, -3.9624645709991455, -2.4790053367614746, 6.039451599121094, 0.28057336807250977, -0.14543676376342773, 6.296198844909668, -6.284533977508545, 2.251372814178467, 1.2308149337768555, -1.7038142681121826, -1.231137990951538, 3.387157917022705, 0.19590778648853302, 4.165546417236328, 3.198751926422119, 5.091370105743408, 8.727500915527344, 2.0703299045562744, 2.583468198776245, 17.02371597290039, 1.9419081211090088, 7.963127613067627, -0.6667954325675964, 3.7242074012756348, -0.9811073541641235, -3.6403090953826904, 2.0462911128997803, 8.08560562133789, 1.1045634746551514, -0.7681057453155518, 6.557042121887207, 3.315793514251709, 1.9023520946502686, -5.043272495269775, 1.0250734090805054, 9.561795234680176, -0.4666145443916321, 1.3330157995224, 0.747592568397522, 2.673740863800049, 8.036601066589355, -1.7438557147979736, 9.52469253540039, 0.8591849207878113, 0.11646737903356552, 0.28490254282951355, 1.0668795108795166, -3.3363828659057617, 0.6016898155212402, 14.026965141296387, 1.9685696363449097, 3.3628671169281006, 1.4784119129180908, 3.1868035793304443, -3.1057896614074707, 0.5652472972869873, -1.8878809213638306, -0.7471907138824463, 1.781326174736023, 0.14876757562160492, -1.9852750301361084, 0.7695527672767639, 5.809105396270752, 5.497748851776123, 4.282855033874512, 6.7747979164123535, 0.4950435757637024, 1.519358515739441, -4.210850715637207, 4.7905097007751465, 4.594295978546143, 4.560583114624023, 5.909091949462891, 8.564666748046875, 0.43338924646377563, -4.684457302093506, 1.446903944015503, -2.0613067150115967, 4.452941417694092, 2.2838401794433594, 6.302313804626465, 6.595586776733398, -0.06451596319675446, -0.22148771584033966, 1.8031952381134033, 5.283732891082764, 2.2429919242858887, 3.4238264560699463, -0.6383851170539856, 8.90107536315918, 1.7141482830047607, -2.336482524871826, -7.494335174560547, 0.34511804580688477, -6.2100934982299805, -10.21502685546875, 9.581095695495605, 0.2182770073413849, 6.531732082366943, 10.92823600769043, 3.509634494781494, -3.612150192260742, -6.4518141746521, 1.3590294122695923, -2.4489481449127197, -5.897738456726074, 3.5373306274414062, 6.087634086608887, 1.2737987041473389, -7.105192184448242, -4.22930383682251, -0.8033614754676819, 2.7297589778900146, 2.670377492904663, -8.51792049407959, -0.28138789534568787, -1.9346734285354614, -1.4722049236297607, -12.524225234985352, 3.3064467906951904, 2.8022730350494385, 4.547658920288086, 0.8813936710357666, -16.24278450012207, 0.5809451937675476, 3.2154922485351562, 2.307386636734009, -6.704415798187256, 1.6461390256881714, 3.4298183917999268, -5.469807147979736, 8.788410186767578, -3.892169952392578, 5.48904275894165, 0.5364368557929993, -11.399589538574219, -4.978946208953857, -3.411193370819092, 5.732967853546143, -0.3865492045879364, -3.654529094696045, -8.194952011108398, -1.3755087852478027, 6.900583744049072, 4.96054744720459, -11.695950508117676, 5.90748405456543, 6.988517761230469, 15.990835189819336, 7.144826889038086, 4.779443264007568, 5.205475330352783, -4.891706943511963, -1.6739048957824707, 1.7069860696792603, 2.475119113922119, -4.019071102142334, -3.083826780319214, -12.008983612060547, -3.1252455711364746, -10.105923652648926, -0.7367135882377625, -0.5814810991287231, -7.9268975257873535, -4.097059726715088, -1.5328714847564697, 4.246224880218506, -11.634921073913574, 0.09117909520864487, -8.329429626464844, 9.658588409423828, -2.075275182723999, -14.111587524414062, 4.86807107925415, 1.3009413480758667, -6.269337177276611, 11.01652717590332, 4.5159502029418945, 2.2188384532928467, -3.8860788345336914, 13.2975492477417, -0.08919616788625717, -13.550195693969727, -6.116854667663574, -5.198000431060791, -8.988157272338867, -1.366070032119751, 5.989762783050537, -2.2405216693878174, -3.5819308757781982, 5.338533401489258, 10.034995079040527, 13.67345905303955, -0.8039427399635315, -2.6900415420532227, 11.70088005065918, 4.153789043426514, -0.941993772983551, 5.353020191192627, 4.499505043029785, 24.411151885986328, -4.008674144744873, 0.34126636385917664, 2.675729513168335, -4.912393093109131, -4.2219696044921875, 1.0421556234359741, 18.68941307067871, 5.761307716369629, -2.467764377593994, 0.29829758405685425, 0.027464019134640694, 4.451561450958252, 0.31479647755622864, 12.707536697387695, 3.5583009719848633, 5.579564571380615, 2.048123598098755, -1.08589506149292, -8.500978469848633, -4.725610733032227, -4.8174309730529785, -8.294342041015625, 5.408687114715576, -17.738012313842773, -8.964764595031738, -4.187047004699707, 4.725888729095459, 12.285412788391113, -2.9936840534210205, 8.821985244750977, 10.508160591125488, 3.6684722900390625, -1.506569266319275, 3.1476714611053467, 4.425353050231934, -5.381320953369141, -2.7792961597442627, -5.748754501342773, 3.0212202072143555, -1.243736743927002, 2.1924993991851807, -4.393563747406006, 8.206816673278809, 0.4208746552467346, -0.23825624585151672, 3.0728204250335693, 2.3688979148864746, -3.4967217445373535, -7.430777072906494, -9.332313537597656, 8.258479118347168, -4.089930534362793, 0.5951282382011414, 1.378358006477356, -4.979133129119873, 0.7200655937194824, -11.033937454223633, -3.2978079319000244, 6.704408645629883, -9.678386688232422, -9.031853675842285, 10.265643119812012, -1.117460012435913, -0.5011903643608093, 8.972606658935547, -16.285306930541992, 15.224489212036133, 9.116900444030762, 0.5674023628234863, -26.643022537231445, -0.6147254705429077, -4.534687519073486, -2.8818657398223877, 7.760899066925049, -15.696104049682617, 9.828707695007324, 8.14562702178955, 3.5143282413482666, 11.27475357055664, -6.803077697753906, 3.876725912094116, 8.160186767578125, -9.959525108337402, 0.4125365912914276, -2.397756576538086, 1.7407482862472534, -0.4983200132846832, 1.3175519704818726, -3.508970022201538, 7.653633117675781, -0.49870777130126953, -1.1959646940231323, 2.0649938583374023, -7.260519504547119, -1.2891749143600464, -12.949204444885254, -14.293869018554688, -16.540895462036133, -3.819275379180908, 5.090933799743652, 18.855749130249023, 7.059847831726074, -1.1328486204147339, 8.46860408782959, 4.073409080505371, -0.6940829157829285, -2.1140143871307373, -0.038512781262397766, 4.552226543426514, -3.089585542678833, -2.002318859100342, 11.22482967376709, 0.03874720260500908, 1.414954423904419, 1.4589028358459473, -5.504327297210693, -4.82159948348999, -4.536275863647461, -3.507415533065796, 3.455519437789917, 5.486959934234619, -3.4060072898864746, 10.94623851776123, 5.59588098526001, -6.926897048950195, 12.305488586425781, 6.834031105041504, -1.7753971815109253, -6.449484825134277, -1.243643045425415, -1.9231858253479004, 1.0566980838775635, -5.521469593048096, -0.8734586238861084, 3.016833782196045, 14.461495399475098, 1.2237658500671387, 3.4367809295654297, -2.24094820022583, 4.866507053375244, -2.450552463531494, 1.7248139381408691, 8.924735069274902, -8.517370223999023, 1.9042242765426636, -0.06009470298886299, -5.6318278312683105, -2.0459046363830566, 6.885619640350342, 0.5293524861335754, -7.227077007293701, 10.510580062866211, 1.7488758563995361, 18.110410690307617, 2.8602073192596436, 3.7348198890686035, -3.7891430854797363, -0.9761712551116943, 3.1211953163146973, 4.01323938369751, -7.757907390594482, 0.7857369780540466, 5.530398845672607, -6.733846664428711, -7.9834370613098145, 0.7862846851348877, 0.7993610501289368, -1.291247844696045, 9.105409622192383, -1.4117343425750732, -9.597323417663574, 2.8856444358825684, -1.5806137323379517, -9.031063079833984, -0.9208299517631531, 1.954127311706543, 7.666856288909912, 6.5656328201293945, 1.2917193174362183, 8.81393051147461, -2.932053327560425, 4.994943618774414, -4.77248477935791, -4.413171768188477, -5.558285713195801, 2.934504747390747, -4.475008964538574, -3.9609568119049072, -0.20943506062030792, -4.7518720626831055, -3.0944619178771973, -1.4200353622436523, 27.722076416015625, 5.733840465545654, -3.14619779586792, -6.120003700256348, -1.889582872390747, 1.8326330184936523, 1.189953088760376, 8.48201847076416, -8.29006290435791, 8.51697063446045, -5.422333240509033, 13.855907440185547, 7.661342620849609, 1.4092040061950684, 2.546752452850342, -4.615562915802002, -4.70734977722168, 8.131473541259766, -5.281466960906982, -9.980240821838379, 1.5382840633392334, 1.6608315706253052, 4.616870403289795, 1.5667983293533325, -4.313716411590576, 1.7989505529403687, 4.575771808624268, -2.8494460582733154, 0.7142062187194824, 3.381490468978882, 1.0041602849960327, -11.879780769348145, 4.610030174255371, 0.4385322332382202, -2.4334888458251953, -4.643072128295898, 7.839527606964111, -1.4479140043258667, 2.3475842475891113, 8.303638458251953, 5.987173557281494, -0.13164465129375458, 20.776458740234375, 6.514074325561523, 6.39000940322876, -1.6530624628067017, -4.299168109893799, -1.2214243412017822, -2.4169461727142334, -0.7353959679603577, 7.633442401885986, -0.37223121523857117, 7.075291156768799, 9.227544784545898, 3.6269171237945557, 12.724566459655762, 4.785247802734375, -1.989797592163086, -7.498472690582275, -1.6899975538253784, 2.3632664680480957, -5.920325756072998, 2.2207906246185303, 1.577964186668396, 2.8370814323425293, -1.8299052715301514, -0.05805160477757454, 1.706862211227417, -7.99114990234375, 0.7413071393966675, 7.4231767654418945, 1.678758144378662, 5.269700050354004, -4.982027053833008, 0.013515126891434193, 0.6838747262954712, 9.986451148986816, 26.704431533813477, 5.812448978424072, 6.642690658569336, 5.7393598556518555, -0.08590050041675568], [3.01784348487854, 5.112657070159912, 1.5720635652542114, 3.422673463821411, 6.302527904510498, -0.9281664490699768, 1.1736434698104858, 8.769684791564941, -0.5848086476325989, 0.1014857366681099, 2.3400893211364746, 4.783589839935303, 1.3288785219192505, 0.1789061725139618, 1.452574372291565, 5.447720050811768, 6.499761581420898, 5.323114395141602, 1.812734603881836, 0.5866472125053406, 8.475296974182129, 2.5506930351257324, 2.253739356994629, 0.4987468719482422, 15.878190040588379, 4.167952537536621, 2.551057815551758, -0.6879478096961975, -0.7840318083763123, 1.250300645828247, 4.284858703613281, 3.4532532691955566, 13.253715515136719, 7.103646755218506, 2.1269969940185547, -0.0708494782447815, 9.73449993133545, 3.3818392753601074, 2.6586484909057617, -1.5035051107406616, -0.015386850573122501, 3.8350045680999756, 2.614607095718384, 1.3614723682403564, 4.163915157318115, 2.0362207889556885, 2.906210422515869, 1.3593354225158691, -0.8192042708396912, 3.201335906982422, 5.7952189445495605, -0.4544585347175598, 0.5717003345489502, 5.475174427032471, 3.5846152305603027, 4.595945358276367, -1.3708105087280273, -0.37364181876182556, 4.863386631011963, 1.064262866973877, 1.3710384368896484, 1.6257948875427246, 6.262784004211426, 12.637995719909668, 0.7141199707984924, 11.85196590423584, 0.5957174301147461, 2.626431703567505, 0.3529825210571289, 2.206754446029663, 4.290128707885742, 0.7245150208473206, 5.824039936065674, 1.7844370603561401, 4.620673656463623, 4.677059650421143, 6.99808931350708, 4.186373233795166, 4.9715423583984375, 0.39093366265296936, 3.275470733642578, 3.1112475395202637, 0.19495593011379242, 1.332830548286438, 1.003247857093811, -0.28190597891807556, 3.0351061820983887, 1.9685611724853516, -0.06252686679363251, 6.11923360824585, -1.2307461500167847, 6.741322994232178, 5.046694755554199, 3.717787981033325, -0.25500187277793884, -0.9064252972602844, -0.469693660736084, 4.729645252227783, 5.022979259490967, 4.131561279296875, 0.09285745024681091, -0.4818956255912781, 0.29327642917633057, 0.7163599729537964, -0.15184131264686584, 0.8738767504692078, 2.5746381282806396, -1.2530248165130615, 2.9083902835845947, -3.720705986022949, 17.323680877685547, 1.7340424060821533, 9.857051849365234, 3.8818979263305664, 1.491890549659729, 1.5998897552490234, -1.052870273590088, 0.8786101341247559, 4.125998497009277, 1.1137244701385498, 2.5024545192718506, 1.29673171043396, 1.5002011060714722, 4.940643310546875, 5.627681255340576, -0.9945104718208313, 3.7261264324188232, 0.5570665001869202, 0.6796324849128723, 7.503660678863525, 1.0292866230010986, 3.7579193115234375, 3.5055837631225586, 0.05697796493768692, 3.038381576538086, -4.8624372482299805, -0.936061680316925, 3.5984575748443604, 2.62560772895813, 2.108264923095703, 0.6706430912017822, -1.2704334259033203, 0.4725746512413025, 7.1711106300354, 4.985754489898682, 2.969700813293457, 1.8575427532196045, 1.4043939113616943, 7.850509166717529, 1.511243462562561, 1.4954607486724854, 0.05556324124336243, 5.623380661010742, 1.6094226837158203, 1.9430466890335083, 12.654869079589844, 3.2207729816436768, 3.7357935905456543, -0.5693630576133728, -1.7700062990188599, 8.324055671691895, 5.595596790313721, -2.235177755355835, 1.5197099447250366, 8.84881591796875, 3.9533581733703613, 4.986800193786621, -0.690112829208374, 7.5316338539123535, 4.7954254150390625, 1.3214374780654907, 5.572253227233887, 0.6459388136863708, 0.5992549061775208, -2.6549689769744873, 0.15384113788604736, 0.5091606378555298, 2.1988842487335205, 3.308065414428711, 2.250802516937256, -2.021876096725464, 2.3017075061798096, 5.7343363761901855, 0.4366241693496704, 2.638061285018921, 1.0905847549438477, 1.8403253555297852, 0.8528172969818115, 2.2300119400024414, -1.2184237241744995, 2.27764892578125, 14.183731079101562, 0.24446946382522583, 1.8630578517913818, 0.12135559320449829, 2.6645455360412598, 1.7666230201721191, 6.462684631347656, 5.555589199066162, 0.7175664901733398, 1.4745081663131714, 2.687394142150879, 4.9500250816345215, 4.14481258392334, 2.6586873531341553, 6.816920757293701, 7.156455039978027, 0.20498871803283691, 3.691261053085327, 5.209842205047607, 0.26440662145614624, 7.608903408050537, 7.865791320800781, 3.453559637069702, 0.5063813924789429, 3.782716751098633, -1.4637093544006348, 1.9167863130569458, 1.3483304977416992, 6.287912368774414, -0.7419692277908325, 4.444672584533691, 4.804971694946289, 0.7750698924064636, 2.129504442214966, 3.474783420562744, 7.569134712219238, 1.41926908493042, -0.45796507596969604, -0.7726029753684998, 3.123178720474243, -1.2952226400375366, -0.8419687747955322, 3.82037091255188, 1.5249325037002563, 1.4796744585037231, -0.002520549576729536, 6.743261814117432, 5.22550106048584, 2.0938827991485596, 7.030023097991943, 2.8585000038146973, -0.47457095980644226, -0.6148466467857361, -1.2690900564193726, 1.0376332998275757, -0.669449508190155, 5.091709136962891, 4.27943754196167, 3.8097665309906006, -0.1485065370798111, -0.0780564695596695, 4.999263286590576, -1.9078221321105957, 4.753134727478027, 2.739407539367676, 3.8841753005981445, -2.723067045211792, 0.48681074380874634, 6.599380970001221, -7.231697082519531, -1.4056743383407593, -0.6582474708557129, -1.9318519830703735, -1.1908984184265137, -0.8099364042282104, -0.1976824700832367, 0.320751816034317, -1.7142658233642578, 0.7570810914039612, -3.6256823539733887, -1.0809221267700195, 1.3776414394378662, -4.158339500427246, -2.855393409729004, -1.7023018598556519, 4.89351224899292, 0.21845965087413788, -1.4289183616638184, -4.970163345336914, -0.6048333644866943, 0.89115309715271, 1.9480416774749756, 2.5861427783966064, 3.808272123336792, -0.6123007535934448, 5.185824871063232, -1.9508320093154907, -2.081444025039673, 4.896505355834961, 2.5834290981292725, -1.9907349348068237, 0.4464931786060333, 0.19932134449481964, 0.39921993017196655, 3.570664644241333, -1.0060851573944092, 9.854408264160156, 0.8243910670280457, -3.816740036010742, 1.7344341278076172, -2.4256653785705566, 1.3474606275558472, 2.135025978088379, -0.14828257262706757, -0.6396799087524414, 0.9264630675315857, 1.6716865301132202, -0.7761428952217102, 0.12605297565460205, 4.994843006134033, -0.1149580255150795, -0.03167819231748581, 0.7895832061767578, -0.16294549405574799, -4.51790189743042, -0.3461475372314453, -0.2811633348464966, -5.482676029205322, -6.1358184814453125, 2.965381145477295, 5.125443458557129, -1.3862950801849365, 0.739778995513916, -1.7307957410812378, 2.500762939453125, -3.7074170112609863, -2.2499396800994873, 0.02668113447725773, -2.738609552383423, 1.0233166217803955, 2.653529644012451, 3.6485748291015625, -2.2211697101593018, -4.6557183265686035, -1.0139895677566528, 4.5934624671936035, -2.39371919631958, -1.7339918613433838, -7.518921852111816, -0.9868112206459045, 5.163437366485596, 0.7140101790428162, 0.4077761471271515, -0.41702568531036377, -0.8630756139755249, -1.4277513027191162, 5.0331807136535645, 1.3679728507995605, -3.4947996139526367, -2.1982288360595703, 0.583776593208313, 2.0428085327148438, 3.6711795330047607, -0.7127060294151306, 1.2336084842681885, -0.84803307056427, -3.04923415184021, 1.7132467031478882, -1.7706774473190308, -7.133663654327393, -1.0428409576416016, 0.5234993100166321, -1.3532886505126953, -1.993787407875061, -2.0094046592712402, -0.600742518901825, 2.057410478591919, 9.645698547363281, 0.05898533761501312, -1.4659658670425415, -2.4695866107940674, 3.6663990020751953, -2.759669303894043, 4.076565265655518, 1.2262303829193115, -2.5577704906463623, 7.276581287384033, -3.467866897583008, 3.9614434242248535, 0.25677216053009033, 3.9642462730407715, -1.2609117031097412, -0.49245333671569824, 3.2868528366088867, 6.848304271697998, -0.16906002163887024, 2.1158218383789062, 10.151139259338379, -2.887840747833252, 1.2775803804397583, 5.977931976318359, -2.3645105361938477, -0.5909475684165955, 3.0240590572357178, 5.598824501037598, 4.688470363616943, -2.5914011001586914, 3.3807122707366943, 8.33694839477539, 8.690329551696777, 9.269251823425293, 4.33351469039917, 2.651498317718506, 11.627522468566895, 3.432173490524292, 1.1897366046905518, 2.5791685581207275, 14.610630989074707, 2.551398754119873, 2.1429331302642822, 6.463087558746338, -0.7899402976036072, -0.4876243472099304, 2.263521909713745, -1.9979718923568726, 17.12566566467285, 11.658222198486328, -2.4748263359069824, 0.13518978655338287, 13.130541801452637, 3.610633611679077, 5.652942657470703, -2.2321667671203613, 1.7907873392105103, 11.694586753845215, 0.16803932189941406, 2.15417218208313, 6.662277698516846, 1.7581429481506348, 0.5333459377288818, 1.7501450777053833, -0.27374517917633057, 4.345627307891846, 5.119783878326416, 0.8505327701568604, -0.7614990472793579, 3.7393622398376465, 3.776477336883545, 2.5872557163238525, -1.219797134399414, 2.9025659561157227, 4.418984889984131, 1.7356479167938232, 1.9816396236419678, 2.2376182079315186, 11.1365327835083, 18.059356689453125, 2.0194876194000244, 9.934674263000488, -0.5626741051673889, 3.9191601276397705, -0.09079437702894211, 2.1367568969726562, 4.688582897186279, 2.3204004764556885, 3.9319417476654053, 2.997116804122925, 3.8701417446136475, 4.346458435058594, 8.936240196228027, 6.745352745056152, 11.634418487548828, -0.18413271009922028, 4.576817512512207, 3.4767510890960693, -0.6085829138755798, 6.224236011505127, 2.1977295875549316, 2.120790481567383, 5.553001403808594, 0.7904146313667297, -1.4944610595703125, 6.647088050842285, -1.4157466888427734, 9.721282958984375, 3.884773015975952, 6.829360485076904, -0.22095179557800293, -1.2246105670928955, -4.182944297790527, 6.688533306121826, 5.970546722412109, 1.0200133323669434, -0.009411104954779148, 1.2593438625335693, -0.7610942721366882, 0.2193717211484909, 0.38853710889816284, 2.990865468978882, 1.801194667816162, -1.3263453245162964, 2.147987127304077, -0.13604736328125, 15.476449012756348, 1.7065376043319702, 9.402338981628418, 9.190412521362305, 0.93069988489151, 1.1711115837097168, -0.5017558932304382, 0.6091024279594421, 1.6105875968933105, 0.15817174315452576, 2.4774394035339355, 2.0110206604003906, 1.650884985923767, 1.371528148651123, 3.5206637382507324, -1.3031691312789917, 4.694939613342285, 4.002590179443359]]